<?xml version="1.0"?>
<opencv_storage>
<cascade>
  <stageType>BOOST</stageType>
  <featureType>HAAR</featureType>
  <height>24</height>
  <width>24</width>
  <stageParams>
    <boostType>GAB</boostType>
    <minHitRate>9.9500000476837158e-01</minHitRate>
    <maxFalseAlarm>5.0000000000000000e-01</maxFalseAlarm>
    <weightTrimRate>9.4999999999999996e-01</weightTrimRate>
    <maxDepth>1</maxDepth>
    <maxWeakCount>100</maxWeakCount></stageParams>
  <featureParams>
    <maxCatCount>0</maxCatCount>
    <featSize>1</featSize>
    <mode>BASIC</mode></featureParams>
  <stageNum>11</stageNum>
  <stages>
    <!-- stage 0 -->
    <_>
      <maxWeakCount>2</maxWeakCount>
      <stageThreshold>-4.3692383915185928e-02</stageThreshold>
      <weakClassifiers>
        <_>
          <internalNodes>
            0 -1 2 -6.7380079999566078e-03</internalNodes>
          <leafValues>
            8.9473682641983032e-01 -9.1304349899291992e-01</leafValues></_>
        <_>
          <internalNodes>
            0 -1 1 -1.7036629840731621e-02</internalNodes>
          <leafValues>
            8.7189310789108276e-01 -9.3842923641204834e-01</leafValues></_></weakClassifiers></_>
    <!-- stage 1 -->
    <_>
      <maxWeakCount>2</maxWeakCount>
      <stageThreshold>-1.0230635851621628e-01</stageThreshold>
      <weakClassifiers>
        <_>
          <internalNodes>
            0 -1 25 1.7888648435473442e-02</internalNodes>
          <leafValues>
            -9.3333333730697632e-01 8.5000002384185791e-01</leafValues></_>
        <_>
          <internalNodes>
            0 -1 10 6.5782424062490463e-03</internalNodes>
          <leafValues>
            -8.9676403999328613e-01 8.3102697134017944e-01</leafValues></_></weakClassifiers></_>
    <!-- stage 2 -->
    <_>
      <maxWeakCount>2</maxWeakCount>
      <stageThreshold>-2.2707977890968323e-01</stageThreshold>
      <weakClassifiers>
        <_>
          <internalNodes>
            0 -1 17 -4.8760822974145412e-03</internalNodes>
          <leafValues>
            9.4285714626312256e-01 -8.7368422746658325e-01</leafValues></_>
        <_>
          <internalNodes>
            0 -1 11 -1.6522444784641266e-02</internalNodes>
          <leafValues>
            6.4660441875457764e-01 -9.7726309299468994e-01</leafValues></_></weakClassifiers></_>
    <!-- stage 3 -->
    <_>
      <maxWeakCount>2</maxWeakCount>
      <stageThreshold>-2.8496238589286804e-01</stageThreshold>
      <weakClassifiers>
        <_>
          <internalNodes>
            0 -1 20 3.5599842667579651e-02</internalNodes>
          <leafValues>
            -9.4999998807907104e-01 5.1999998092651367e-01</leafValues></_>
        <_>
          <internalNodes>
            0 -1 4 7.2420984506607056e-02</internalNodes>
          <leafValues>
            -7.7092468738555908e-01 6.6503763198852539e-01</leafValues></_></weakClassifiers></_>
    <!-- stage 4 -->
    <_>
      <maxWeakCount>4</maxWeakCount>
      <stageThreshold>-3.0705481767654419e-01</stageThreshold>
      <weakClassifiers>
        <_>
          <internalNodes>
            0 -1 3 -9.2247769236564636e-02</internalNodes>
          <leafValues>
            7.5000000000000000e-01 -6.4150941371917725e-01</leafValues></_>
        <_>
          <internalNodes>
            0 -1 24 4.6877205371856689e-02</internalNodes>
          <leafValues>
            -8.7917780876159668e-01 4.8158276081085205e-01</leafValues></_>
        <_>
          <internalNodes>
            0 -1 0 -6.0022214893251657e-04</internalNodes>
          <leafValues>
            3.3075046539306641e-01 -8.6493474245071411e-01</leafValues></_>
        <_>
          <internalNodes>
            0 -1 23 1.0484894737601280e-03</internalNodes>
          <leafValues>
            -4.4964593648910522e-01 8.8288193941116333e-01</leafValues></_></weakClassifiers></_>
    <!-- stage 5 -->
    <_>
      <maxWeakCount>4</maxWeakCount>
      <stageThreshold>-8.4038782119750977e-01</stageThreshold>
      <weakClassifiers>
        <_>
          <internalNodes>
            0 -1 5 5.4630236700177193e-03</internalNodes>
          <leafValues>
            -6.7391306161880493e-01 3.1578946113586426e-01</leafValues></_>
        <_>
          <internalNodes>
            0 -1 18 3.3137015998363495e-02</internalNodes>
          <leafValues>
            -7.9054743051528931e-01 3.3645984530448914e-01</leafValues></_>
        <_>
          <internalNodes>
            0 -1 29 -1.9309212802909315e-04</internalNodes>
          <leafValues>
            -1. 2.5800794363021851e-01</leafValues></_>
        <_>
          <internalNodes>
            0 -1 16 5.8803418651223183e-03</internalNodes>
          <leafValues>
            -6.2363785505294800e-01 5.1555734872817993e-01</leafValues></_></weakClassifiers></_>
    <!-- stage 6 -->
    <_>
      <maxWeakCount>2</maxWeakCount>
      <stageThreshold>-2.6564255356788635e-01</stageThreshold>
      <weakClassifiers>
        <_>
          <internalNodes>
            0 -1 15 2.8213796019554138e-01</internalNodes>
          <leafValues>
            -6.1467891931533813e-01 8.0952382087707520e-01</leafValues></_>
        <_>
          <internalNodes>
            0 -1 27 1.9387989304959774e-03</internalNodes>
          <leafValues>
            -9.1453880071640015e-01 3.4903633594512939e-01</leafValues></_></weakClassifiers></_>
    <!-- stage 7 -->
    <_>
      <maxWeakCount>2</maxWeakCount>
      <stageThreshold>-2.6273715496063232e-01</stageThreshold>
      <weakClassifiers>
        <_>
          <internalNodes>
            0 -1 7 -1.2268283963203430e-01</internalNodes>
          <leafValues>
            1. -5.3846156597137451e-01</leafValues></_>
        <_>
          <internalNodes>
            0 -1 9 1.4435146003961563e-02</internalNodes>
          <leafValues>
            -1. 2.7572438120841980e-01</leafValues></_></weakClassifiers></_>
    <!-- stage 8 -->
    <_>
      <maxWeakCount>2</maxWeakCount>
      <stageThreshold>-5.2206313610076904e-01</stageThreshold>
      <weakClassifiers>
        <_>
          <internalNodes>
            0 -1 13 1.1546998284757137e-03</internalNodes>
          <leafValues>
            -8.4210526943206787e-01 2.5925925374031067e-01</leafValues></_>
        <_>
          <internalNodes>
            0 -1 12 4.9247639253735542e-04</internalNodes>
          <leafValues>
            -7.8132241964340210e-01 4.8431989550590515e-01</leafValues></_></weakClassifiers></_>
    <!-- stage 9 -->
    <_>
      <maxWeakCount>4</maxWeakCount>
      <stageThreshold>-3.8825207948684692e-01</stageThreshold>
      <weakClassifiers>
        <_>
          <internalNodes>
            0 -1 6 -1.1539421975612640e-01</internalNodes>
          <leafValues>
            4.6666666865348816e-01 -6.3999998569488525e-01</leafValues></_>
        <_>
          <internalNodes>
            0 -1 26 2.3443021927960217e-04</internalNodes>
          <leafValues>
            -6.8839037418365479e-01 3.7923285365104675e-01</leafValues></_>
        <_>
          <internalNodes>
            0 -1 22 -2.7851581107825041e-03</internalNodes>
          <leafValues>
            7.2967648506164551e-01 -4.6915289759635925e-01</leafValues></_>
        <_>
          <internalNodes>
            0 -1 28 5.2805179730057716e-03</internalNodes>
          <leafValues>
            3.4166797995567322e-01 -1.</leafValues></_></weakClassifiers></_>
    <!-- stage 10 -->
    <_>
      <maxWeakCount>4</maxWeakCount>
      <stageThreshold>-3.7884262204170227e-01</stageThreshold>
      <weakClassifiers>
        <_>
          <internalNodes>
            0 -1 19 -5.2552195265889168e-03</internalNodes>
          <leafValues>
            3.3333334326744080e-01 -7.2727274894714355e-01</leafValues></_>
        <_>
          <internalNodes>
            0 -1 21 3.7286826409399509e-03</internalNodes>
          <leafValues>
            -5.2271205186843872e-01 6.4854407310485840e-01</leafValues></_>
        <_>
          <internalNodes>
            0 -1 14 -1.7965510778594762e-04</internalNodes>
          <leafValues>
            -8.8249135017395020e-01 3.7635910511016846e-01</leafValues></_>
        <_>
          <internalNodes>
            0 -1 8 1.1804089881479740e-03</internalNodes>
          <leafValues>
            -4.7822868824005127e-01 7.1107417345046997e-01</leafValues></_></weakClassifiers></_></stages>
  <features>
    <_>
      <rects>
        <_>
          0 0 3 20 -1.</_>
        <_>
          1 0 1 20 3.</_></rects>
      <tilted>0</tilted></_>
    <_>
      <rects>
        <_>
          0 2 4 16 -1.</_>
        <_>
          2 2 2 16 2.</_></rects>
      <tilted>0</tilted></_>
    <_>
      <rects>
        <_>
          0 5 2 12 -1.</_>
        <_>
          1 5 1 12 2.</_></rects>
      <tilted>0</tilted></_>
    <_>
      <rects>
        <_>
          1 2 9 15 -1.</_>
        <_>
          1 7 9 5 3.</_></rects>
      <tilted>0</tilted></_>
    <_>
      <rects>
        <_>
          1 9 6 14 -1.</_>
        <_>
          1 16 6 7 2.</_></rects>
      <tilted>0</tilted></_>
    <_>
      <rects>
        <_>
          1 9 11 4 -1.</_>
        <_>
          1 11 11 2 2.</_></rects>
      <tilted>0</tilted></_>
    <_>
      <rects>
        <_>
          2 0 5 21 -1.</_>
        <_>
          2 7 5 7 3.</_></rects>
      <tilted>0</tilted></_>
    <_>
      <rects>
        <_>
          2 1 22 14 -1.</_>
        <_>
          2 1 11 7 2.</_>
        <_>
          13 8 11 7 2.</_></rects>
      <tilted>0</tilted></_>
    <_>
      <rects>
        <_>
          2 14 20 3 -1.</_>
        <_>
          2 15 20 1 3.</_></rects>
      <tilted>0</tilted></_>
    <_>
      <rects>
        <_>
          2 20 19 4 -1.</_>
        <_>
          2 22 19 2 2.</_></rects>
      <tilted>0</tilted></_>
    <_>
      <rects>
        <_>
          2 22 21 2 -1.</_>
        <_>
          2 23 21 1 2.</_></rects>
      <tilted>0</tilted></_>
    <_>
      <rects>
        <_>
          3 0 19 4 -1.</_>
        <_>
          3 2 19 2 2.</_></rects>
      <tilted>0</tilted></_>
    <_>
      <rects>
        <_>
          3 13 8 2 -1.</_>
        <_>
          3 14 8 1 2.</_></rects>
      <tilted>0</tilted></_>
    <_>
      <rects>
        <_>
          3 17 8 2 -1.</_>
        <_>
          3 18 8 1 2.</_></rects>
      <tilted>0</tilted></_>
    <_>
      <rects>
        <_>
          3 22 3 2 -1.</_>
        <_>
          4 22 1 2 3.</_></rects>
      <tilted>0</tilted></_>
    <_>
      <rects>
        <_>
          4 1 20 13 -1.</_>
        <_>
          14 1 10 13 2.</_></rects>
      <tilted>0</tilted></_>
    <_>
      <rects>
        <_>
          4 22 13 2 -1.</_>
        <_>
          4 23 13 1 2.</_></rects>
      <tilted>0</tilted></_>
    <_>
      <rects>
        <_>
          5 0 12 2 -1.</_>
        <_>
          5 1 12 1 2.</_></rects>
      <tilted>0</tilted></_>
    <_>
      <rects>
        <_>
          8 16 6 8 -1.</_>
        <_>
          8 20 6 4 2.</_></rects>
      <tilted>0</tilted></_>
    <_>
      <rects>
        <_>
          9 0 8 2 -1.</_>
        <_>
          9 1 8 1 2.</_></rects>
      <tilted>0</tilted></_>
    <_>
      <rects>
        <_>
          9 16 8 8 -1.</_>
        <_>
          9 20 8 4 2.</_></rects>
      <tilted>0</tilted></_>
    <_>
      <rects>
        <_>
          10 1 9 3 -1.</_>
        <_>
          13 1 3 3 3.</_></rects>
      <tilted>0</tilted></_>
    <_>
      <rects>
        <_>
          11 14 9 1 -1.</_>
        <_>
          14 14 3 1 3.</_></rects>
      <tilted>0</tilted></_>
    <_>
      <rects>
        <_>
          13 12 6 2 -1.</_>
        <_>
          13 12 3 1 2.</_>
        <_>
          16 13 3 1 2.</_></rects>
      <tilted>0</tilted></_>
    <_>
      <rects>
        <_>
          14 6 10 13 -1.</_>
        <_>
          19 6 5 13 2.</_></rects>
      <tilted>0</tilted></_>
    <_>
      <rects>
        <_>
          20 4 4 18 -1.</_>
        <_>
          22 4 2 18 2.</_></rects>
      <tilted>0</tilted></_>
    <_>
      <rects>
        <_>
          20 12 2 4 -1.</_>
        <_>
          21 12 1 4 2.</_></rects>
      <tilted>0</tilted></_>
    <_>
      <rects>
        <_>
          22 6 2 9 -1.</_>
        <_>
          23 6 1 9 2.</_></rects>
      <tilted>0</tilted></_>
    <_>
      <rects>
        <_>
          23 0 1 16 -1.</_>
        <_>
          23 8 1 8 2.</_></rects>
      <tilted>0</tilted></_>
    <_>
      <rects>
        <_>
          23 1 1 2 -1.</_>
        <_>
          23 2 1 1 2.</_></rects>
      <tilted>0</tilted></_></features></cascade>
</opencv_storage>
