<?xml version="1.0"?>
<opencv_storage>
<cascade>
  <stageType>BOOST</stageType>
  <featureType>HAAR</featureType>
  <height>24</height>
  <width>24</width>
  <stageParams>
    <boostType>GAB</boostType>
    <minHitRate>9.9500000476837158e-01</minHitRate>
    <maxFalseAlarm>5.0000000000000000e-01</maxFalseAlarm>
    <weightTrimRate>9.4999999999999996e-01</weightTrimRate>
    <maxDepth>1</maxDepth>
    <maxWeakCount>100</maxWeakCount></stageParams>
  <featureParams>
    <maxCatCount>0</maxCatCount>
    <featSize>1</featSize>
    <mode>BASIC</mode></featureParams>
  <stageNum>12</stageNum>
  <stages>
    <!-- stage 0 -->
    <_>
      <maxWeakCount>1</maxWeakCount>
      <stageThreshold>8.2222223281860352e-01</stageThreshold>
      <weakClassifiers>
        <_>
          <internalNodes>
            0 -1 1 -4.4544679112732410e-03</internalNodes>
          <leafValues>
            8.2222223281860352e-01 -1.</leafValues></_></weakClassifiers></_>
    <!-- stage 1 -->
    <_>
      <maxWeakCount>2</maxWeakCount>
      <stageThreshold>-1.6852569580078125e-01</stageThreshold>
      <weakClassifiers>
        <_>
          <internalNodes>
            0 -1 25 6.4354869537055492e-03</internalNodes>
          <leafValues>
            -9.6610170602798462e-01 8.1818181276321411e-01</leafValues></_>
        <_>
          <internalNodes>
            0 -1 23 2.1085307002067566e-02</internalNodes>
          <leafValues>
            -1. 7.9757601022720337e-01</leafValues></_></weakClassifiers></_>
    <!-- stage 2 -->
    <_>
      <maxWeakCount>2</maxWeakCount>
      <stageThreshold>-1.3891369104385376e-01</stageThreshold>
      <weakClassifiers>
        <_>
          <internalNodes>
            0 -1 22 2.2221125662326813e-02</internalNodes>
          <leafValues>
            -9.3333333730697632e-01 8.1395345926284790e-01</leafValues></_>
        <_>
          <internalNodes>
            0 -1 0 -3.1968720257282257e-02</internalNodes>
          <leafValues>
            7.9441964626312256e-01 -8.8655906915664673e-01</leafValues></_></weakClassifiers></_>
    <!-- stage 3 -->
    <_>
      <maxWeakCount>2</maxWeakCount>
      <stageThreshold>-4.1216823458671570e-01</stageThreshold>
      <weakClassifiers>
        <_>
          <internalNodes>
            0 -1 19 1.3894585892558098e-02</internalNodes>
          <leafValues>
            -8.8461536169052124e-01 4.9019607901573181e-01</leafValues></_>
        <_>
          <internalNodes>
            0 -1 11 -3.8672992959618568e-03</internalNodes>
          <leafValues>
            4.7244715690612793e-01 -8.8866370916366577e-01</leafValues></_></weakClassifiers></_>
    <!-- stage 4 -->
    <_>
      <maxWeakCount>2</maxWeakCount>
      <stageThreshold>-2.9968294501304626e-01</stageThreshold>
      <weakClassifiers>
        <_>
          <internalNodes>
            0 -1 27 7.7322879806160927e-03</internalNodes>
          <leafValues>
            -6.9999998807907104e-01 4.8837208747863770e-01</leafValues></_>
        <_>
          <internalNodes>
            0 -1 5 -1.2339284643530846e-02</internalNodes>
          <leafValues>
            4.0031704306602478e-01 -1.</leafValues></_></weakClassifiers></_>
    <!-- stage 5 -->
    <_>
      <maxWeakCount>2</maxWeakCount>
      <stageThreshold>-9.8501682281494141e-02</stageThreshold>
      <weakClassifiers>
        <_>
          <internalNodes>
            0 -1 3 8.5478059947490692e-02</internalNodes>
          <leafValues>
            -9.2307692766189575e-01 5.2941179275512695e-01</leafValues></_>
        <_>
          <internalNodes>
            0 -1 13 -8.1813983619213104e-02</internalNodes>
          <leafValues>
            8.4688556194305420e-01 -6.2791347503662109e-01</leafValues></_></weakClassifiers></_>
    <!-- stage 6 -->
    <_>
      <maxWeakCount>3</maxWeakCount>
      <stageThreshold>-9.3161374330520630e-02</stageThreshold>
      <weakClassifiers>
        <_>
          <internalNodes>
            0 -1 10 6.5090321004390717e-03</internalNodes>
          <leafValues>
            -7.6923078298568726e-01 3.7254902720451355e-01</leafValues></_>
        <_>
          <internalNodes>
            0 -1 12 1.3015775766689330e-04</internalNodes>
          <leafValues>
            3.9502906799316406e-01 -9.0662360191345215e-01</leafValues></_>
        <_>
          <internalNodes>
            0 -1 26 4.4133355841040611e-03</internalNodes>
          <leafValues>
            -8.6059552431106567e-01 4.4091323018074036e-01</leafValues></_></weakClassifiers></_>
    <!-- stage 7 -->
    <_>
      <maxWeakCount>4</maxWeakCount>
      <stageThreshold>-2.5773426890373230e-01</stageThreshold>
      <weakClassifiers>
        <_>
          <internalNodes>
            0 -1 14 -1.5499699860811234e-02</internalNodes>
          <leafValues>
            6.1290323734283447e-01 -5.5555558204650879e-01</leafValues></_>
        <_>
          <internalNodes>
            0 -1 29 -1.6945309471338987e-04</internalNodes>
          <leafValues>
            -1. 2.9357752203941345e-01</leafValues></_>
        <_>
          <internalNodes>
            0 -1 9 -1.3215397484600544e-03</internalNodes>
          <leafValues>
            5.0950151681900024e-01 -6.0097503662109375e-01</leafValues></_>
        <_>
          <internalNodes>
            0 -1 21 2.3637225385755301e-03</internalNodes>
          <leafValues>
            -5.0525778532028198e-01 6.6488689184188843e-01</leafValues></_></weakClassifiers></_>
    <!-- stage 8 -->
    <_>
      <maxWeakCount>3</maxWeakCount>
      <stageThreshold>-9.5372509956359863e-01</stageThreshold>
      <weakClassifiers>
        <_>
          <internalNodes>
            0 -1 8 4.3834857933688909e-05</internalNodes>
          <leafValues>
            3.2075470685958862e-01 -7.5999999046325684e-01</leafValues></_>
        <_>
          <internalNodes>
            0 -1 16 -8.7296068668365479e-03</internalNodes>
          <leafValues>
            6.1522257328033447e-01 -5.6362611055374146e-01</leafValues></_>
        <_>
          <internalNodes>
            0 -1 28 2.1152095869183540e-03</internalNodes>
          <leafValues>
            -8.8425272703170776e-01 3.6990100145339966e-01</leafValues></_></weakClassifiers></_>
    <!-- stage 9 -->
    <_>
      <maxWeakCount>2</maxWeakCount>
      <stageThreshold>-2.0483089983463287e-01</stageThreshold>
      <weakClassifiers>
        <_>
          <internalNodes>
            0 -1 7 -2.7587424963712692e-02</internalNodes>
          <leafValues>
            7.2413790225982666e-01 -5.6756758689880371e-01</leafValues></_>
        <_>
          <internalNodes>
            0 -1 4 -1.2395579833537340e-03</internalNodes>
          <leafValues>
            -1. 3.6273667216300964e-01</leafValues></_></weakClassifiers></_>
    <!-- stage 10 -->
    <_>
      <maxWeakCount>5</maxWeakCount>
      <stageThreshold>-5.5546355247497559e-01</stageThreshold>
      <weakClassifiers>
        <_>
          <internalNodes>
            0 -1 2 4.9470171332359314e-02</internalNodes>
          <leafValues>
            -5.6756758689880371e-01 7.2413790225982666e-01</leafValues></_>
        <_>
          <internalNodes>
            0 -1 20 -5.9957359917461872e-04</internalNodes>
          <leafValues>
            6.7959868907928467e-01 -5.3895771503448486e-01</leafValues></_>
        <_>
          <internalNodes>
            0 -1 17 -2.3516695946455002e-03</internalNodes>
          <leafValues>
            -8.5399121046066284e-01 4.7636422514915466e-01</leafValues></_>
        <_>
          <internalNodes>
            0 -1 18 9.0000056661665440e-04</internalNodes>
          <leafValues>
            -4.1553556919097900e-01 8.8305407762527466e-01</leafValues></_>
        <_>
          <internalNodes>
            0 -1 24 -1.8026234465651214e-04</internalNodes>
          <leafValues>
            -6.4391428232192993e-01 6.0203206539154053e-01</leafValues></_></weakClassifiers></_>
    <!-- stage 11 -->
    <_>
      <maxWeakCount>2</maxWeakCount>
      <stageThreshold>-1.5045240521430969e-01</stageThreshold>
      <weakClassifiers>
        <_>
          <internalNodes>
            0 -1 6 -1.7047736793756485e-02</internalNodes>
          <leafValues>
            7.4193549156188965e-01 -6.1111110448837280e-01</leafValues></_>
        <_>
          <internalNodes>
            0 -1 15 -3.3130223164334893e-04</internalNodes>
          <leafValues>
            -8.6498403549194336e-01 4.6065869927406311e-01</leafValues></_></weakClassifiers></_></stages>
  <features>
    <_>
      <rects>
        <_>
          0 0 19 6 -1.</_>
        <_>
          0 3 19 3 2.</_></rects>
      <tilted>0</tilted></_>
    <_>
      <rects>
        <_>
          0 4 2 11 -1.</_>
        <_>
          1 4 1 11 2.</_></rects>
      <tilted>0</tilted></_>
    <_>
      <rects>
        <_>
          0 7 12 10 -1.</_>
        <_>
          0 12 12 5 2.</_></rects>
      <tilted>0</tilted></_>
    <_>
      <rects>
        <_>
          0 14 18 10 -1.</_>
        <_>
          0 19 18 5 2.</_></rects>
      <tilted>0</tilted></_>
    <_>
      <rects>
        <_>
          0 23 6 1 -1.</_>
        <_>
          3 23 3 1 2.</_></rects>
      <tilted>0</tilted></_>
    <_>
      <rects>
        <_>
          1 0 22 4 -1.</_>
        <_>
          1 2 22 2 2.</_></rects>
      <tilted>0</tilted></_>
    <_>
      <rects>
        <_>
          1 6 15 5 -1.</_>
        <_>
          6 6 5 5 3.</_></rects>
      <tilted>0</tilted></_>
    <_>
      <rects>
        <_>
          1 9 20 8 -1.</_>
        <_>
          1 9 10 4 2.</_>
        <_>
          11 13 10 4 2.</_></rects>
      <tilted>0</tilted></_>
    <_>
      <rects>
        <_>
          2 0 20 3 -1.</_>
        <_>
          2 1 20 1 3.</_></rects>
      <tilted>0</tilted></_>
    <_>
      <rects>
        <_>
          2 16 14 3 -1.</_>
        <_>
          2 17 14 1 3.</_></rects>
      <tilted>0</tilted></_>
    <_>
      <rects>
        <_>
          2 22 21 2 -1.</_>
        <_>
          2 23 21 1 2.</_></rects>
      <tilted>0</tilted></_>
    <_>
      <rects>
        <_>
          3 0 13 2 -1.</_>
        <_>
          3 1 13 1 2.</_></rects>
      <tilted>0</tilted></_>
    <_>
      <rects>
        <_>
          3 1 2 1 -1.</_>
        <_>
          4 1 1 1 2.</_></rects>
      <tilted>0</tilted></_>
    <_>
      <rects>
        <_>
          4 1 6 21 -1.</_>
        <_>
          4 8 6 7 3.</_></rects>
      <tilted>0</tilted></_>
    <_>
      <rects>
        <_>
          4 13 16 8 -1.</_>
        <_>
          4 13 8 4 2.</_>
        <_>
          12 17 8 4 2.</_></rects>
      <tilted>0</tilted></_>
    <_>
      <rects>
        <_>
          4 19 2 3 -1.</_>
        <_>
          4 20 2 1 3.</_></rects>
      <tilted>0</tilted></_>
    <_>
      <rects>
        <_>
          5 9 6 12 -1.</_>
        <_>
          5 9 3 6 2.</_>
        <_>
          8 15 3 6 2.</_></rects>
      <tilted>0</tilted></_>
    <_>
      <rects>
        <_>
          6 23 12 1 -1.</_>
        <_>
          12 23 6 1 2.</_></rects>
      <tilted>0</tilted></_>
    <_>
      <rects>
        <_>
          7 4 6 2 -1.</_>
        <_>
          7 4 3 1 2.</_>
        <_>
          10 5 3 1 2.</_></rects>
      <tilted>0</tilted></_>
    <_>
      <rects>
        <_>
          7 20 15 4 -1.</_>
        <_>
          7 22 15 2 2.</_></rects>
      <tilted>0</tilted></_>
    <_>
      <rects>
        <_>
          8 6 9 3 -1.</_>
        <_>
          8 7 9 1 3.</_></rects>
      <tilted>0</tilted></_>
    <_>
      <rects>
        <_>
          9 4 3 10 -1.</_>
        <_>
          9 9 3 5 2.</_></rects>
      <tilted>0</tilted></_>
    <_>
      <rects>
        <_>
          9 16 6 8 -1.</_>
        <_>
          9 20 6 4 2.</_></rects>
      <tilted>0</tilted></_>
    <_>
      <rects>
        <_>
          14 7 10 12 -1.</_>
        <_>
          19 7 5 12 2.</_></rects>
      <tilted>0</tilted></_>
    <_>
      <rects>
        <_>
          16 20 6 4 -1.</_>
        <_>
          18 20 2 4 3.</_></rects>
      <tilted>0</tilted></_>
    <_>
      <rects>
        <_>
          20 0 4 16 -1.</_>
        <_>
          22 0 2 16 2.</_></rects>
      <tilted>0</tilted></_>
    <_>
      <rects>
        <_>
          21 1 2 19 -1.</_>
        <_>
          22 1 1 19 2.</_></rects>
      <tilted>0</tilted></_>
    <_>
      <rects>
        <_>
          22 4 2 19 -1.</_>
        <_>
          23 4 1 19 2.</_></rects>
      <tilted>0</tilted></_>
    <_>
      <rects>
        <_>
          22 5 2 11 -1.</_>
        <_>
          23 5 1 11 2.</_></rects>
      <tilted>0</tilted></_>
    <_>
      <rects>
        <_>
          23 1 1 2 -1.</_>
        <_>
          23 2 1 1 2.</_></rects>
      <tilted>0</tilted></_></features></cascade>
</opencv_storage>
