<?xml version="1.0"?>
<opencv_storage>
<cascade>
  <stageType>BOOST</stageType>
  <featureType>HAAR</featureType>
  <height>24</height>
  <width>24</width>
  <stageParams>
    <boostType>GAB</boostType>
    <minHitRate>9.9500000476837158e-01</minHitRate>
    <maxFalseAlarm>5.0000000000000000e-01</maxFalseAlarm>
    <weightTrimRate>9.4999999999999996e-01</weightTrimRate>
    <maxDepth>1</maxDepth>
    <maxWeakCount>100</maxWeakCount></stageParams>
  <featureParams>
    <maxCatCount>0</maxCatCount>
    <featSize>1</featSize>
    <mode>BASIC</mode></featureParams>
  <stageNum>12</stageNum>
  <stages>
    <!-- stage 0 -->
    <_>
      <maxWeakCount>1</maxWeakCount>
      <stageThreshold>8.0327868461608887e-01</stageThreshold>
      <weakClassifiers>
        <_>
          <internalNodes>
            0 -1 1 -1.9646886736154556e-02</internalNodes>
          <leafValues>
            8.0327868461608887e-01 -1.</leafValues></_></weakClassifiers></_>
    <!-- stage 1 -->
    <_>
      <maxWeakCount>2</maxWeakCount>
      <stageThreshold>-2.7030324935913086e-01</stageThreshold>
      <weakClassifiers>
        <_>
          <internalNodes>
            0 -1 11 8.6516723036766052e-02</internalNodes>
          <leafValues>
            -9.7530865669250488e-01 6.8750000000000000e-01</leafValues></_>
        <_>
          <internalNodes>
            0 -1 0 -6.0326913371682167e-03</internalNodes>
          <leafValues>
            7.8916579484939575e-01 -9.5780324935913086e-01</leafValues></_></weakClassifiers></_>
    <!-- stage 2 -->
    <_>
      <maxWeakCount>3</maxWeakCount>
      <stageThreshold>-9.3809920549392700e-01</stageThreshold>
      <weakClassifiers>
        <_>
          <internalNodes>
            0 -1 36 1.7384786158800125e-02</internalNodes>
          <leafValues>
            -8.6516851186752319e-01 7.5000000000000000e-01</leafValues></_>
        <_>
          <internalNodes>
            0 -1 22 6.5824231132864952e-03</internalNodes>
          <leafValues>
            -7.5199562311172485e-01 8.2520818710327148e-01</leafValues></_>
        <_>
          <internalNodes>
            0 -1 20 8.5628375411033630e-02</internalNodes>
          <leafValues>
            -8.4035968780517578e-01 6.7906492948532104e-01</leafValues></_></weakClassifiers></_>
    <!-- stage 3 -->
    <_>
      <maxWeakCount>4</maxWeakCount>
      <stageThreshold>-5.0909239053726196e-01</stageThreshold>
      <weakClassifiers>
        <_>
          <internalNodes>
            0 -1 6 -1.5578034333884716e-02</internalNodes>
          <leafValues>
            3.2467532157897949e-01 -8.8235294818878174e-01</leafValues></_>
        <_>
          <internalNodes>
            0 -1 17 1.0287486761808395e-01</internalNodes>
          <leafValues>
            -8.4846359491348267e-01 4.0037471055984497e-01</leafValues></_>
        <_>
          <internalNodes>
            0 -1 25 -4.6902932226657867e-02</internalNodes>
          <leafValues>
            8.6504358053207397e-01 -4.8328626155853271e-01</leafValues></_>
        <_>
          <internalNodes>
            0 -1 37 4.1218260303139687e-03</internalNodes>
          <leafValues>
            -7.5085616111755371e-01 5.4025411605834961e-01</leafValues></_></weakClassifiers></_>
    <!-- stage 4 -->
    <_>
      <maxWeakCount>4</maxWeakCount>
      <stageThreshold>-5.6543701887130737e-01</stageThreshold>
      <weakClassifiers>
        <_>
          <internalNodes>
            0 -1 4 -6.5397038124501705e-03</internalNodes>
          <leafValues>
            2.7500000596046448e-01 -8.7692308425903320e-01</leafValues></_>
        <_>
          <internalNodes>
            0 -1 31 1.0772335808724165e-03</internalNodes>
          <leafValues>
            -8.9544183015823364e-01 3.5694330930709839e-01</leafValues></_>
        <_>
          <internalNodes>
            0 -1 13 4.3389026541262865e-04</internalNodes>
          <leafValues>
            -5.3011608123779297e-01 6.8542927503585815e-01</leafValues></_>
        <_>
          <internalNodes>
            0 -1 24 8.1402612850070000e-03</internalNodes>
          <leafValues>
            -6.0914260149002075e-01 5.8512085676193237e-01</leafValues></_></weakClassifiers></_>
    <!-- stage 5 -->
    <_>
      <maxWeakCount>4</maxWeakCount>
      <stageThreshold>-6.3399982452392578e-01</stageThreshold>
      <weakClassifiers>
        <_>
          <internalNodes>
            0 -1 21 6.0093402862548828e-03</internalNodes>
          <leafValues>
            -7.4025976657867432e-01 3.2352942228317261e-01</leafValues></_>
        <_>
          <internalNodes>
            0 -1 2 -8.9383218437433243e-03</internalNodes>
          <leafValues>
            4.6851041913032532e-01 -6.7504388093948364e-01</leafValues></_>
        <_>
          <internalNodes>
            0 -1 26 -5.2670780569314957e-03</internalNodes>
          <leafValues>
            4.9838200211524963e-01 -7.2239148616790771e-01</leafValues></_>
        <_>
          <internalNodes>
            0 -1 38 -8.6751638446003199e-04</internalNodes>
          <leafValues>
            -1. 3.6014103889465332e-01</leafValues></_></weakClassifiers></_>
    <!-- stage 6 -->
    <_>
      <maxWeakCount>4</maxWeakCount>
      <stageThreshold>-1.5391311049461365e-01</stageThreshold>
      <weakClassifiers>
        <_>
          <internalNodes>
            0 -1 23 9.6100196242332458e-02</internalNodes>
          <leafValues>
            -5.5555558204650879e-01 6.7567569017410278e-01</leafValues></_>
        <_>
          <internalNodes>
            0 -1 27 -1.7187148332595825e-01</internalNodes>
          <leafValues>
            7.7361220121383667e-01 -5.2348154783248901e-01</leafValues></_>
        <_>
          <internalNodes>
            0 -1 14 -6.7388045135885477e-04</internalNodes>
          <leafValues>
            -8.2143026590347290e-01 4.2680138349533081e-01</leafValues></_>
        <_>
          <internalNodes>
            0 -1 34 -3.2871752046048641e-03</internalNodes>
          <leafValues>
            5.1532304286956787e-01 -7.2292399406433105e-01</leafValues></_></weakClassifiers></_>
    <!-- stage 7 -->
    <_>
      <maxWeakCount>4</maxWeakCount>
      <stageThreshold>-7.0673072338104248e-01</stageThreshold>
      <weakClassifiers>
        <_>
          <internalNodes>
            0 -1 28 -3.1892526894807816e-02</internalNodes>
          <leafValues>
            9.0909093618392944e-01 -4.4715446233749390e-01</leafValues></_>
        <_>
          <internalNodes>
            0 -1 32 -4.1643832810223103e-03</internalNodes>
          <leafValues>
            -9.0083998441696167e-01 3.4256410598754883e-01</leafValues></_>
        <_>
          <internalNodes>
            0 -1 29 1.7061072867363691e-03</internalNodes>
          <leafValues>
            -7.4164408445358276e-01 3.1966558098793030e-01</leafValues></_>
        <_>
          <internalNodes>
            0 -1 10 -1.6757280100136995e-03</internalNodes>
          <leafValues>
            3.2159814238548279e-01 -9.6222019195556641e-01</leafValues></_></weakClassifiers></_>
    <!-- stage 8 -->
    <_>
      <maxWeakCount>4</maxWeakCount>
      <stageThreshold>-4.2764475941658020e-01</stageThreshold>
      <weakClassifiers>
        <_>
          <internalNodes>
            0 -1 5 -3.8078337907791138e-02</internalNodes>
          <leafValues>
            8.3333331346511841e-01 -4.5454546809196472e-01</leafValues></_>
        <_>
          <internalNodes>
            0 -1 33 -5.6165512651205063e-03</internalNodes>
          <leafValues>
            -8.0365884304046631e-01 3.7909752130508423e-01</leafValues></_>
        <_>
          <internalNodes>
            0 -1 30 -5.2115414291620255e-03</internalNodes>
          <leafValues>
            -1. 2.3128712177276611e-01</leafValues></_>
        <_>
          <internalNodes>
            0 -1 12 -2.6335336267948151e-02</internalNodes>
          <leafValues>
            5.9927242994308472e-01 -5.5535215139389038e-01</leafValues></_></weakClassifiers></_>
    <!-- stage 9 -->
    <_>
      <maxWeakCount>3</maxWeakCount>
      <stageThreshold>-3.3985209465026855e-01</stageThreshold>
      <weakClassifiers>
        <_>
          <internalNodes>
            0 -1 7 -5.4749585688114166e-02</internalNodes>
          <leafValues>
            8.5714286565780640e-01 -5.0427353382110596e-01</leafValues></_>
        <_>
          <internalNodes>
            0 -1 9 2.9998620972037315e-02</internalNodes>
          <leafValues>
            -3.7511393427848816e-01 8.9761793613433838e-01</leafValues></_>
        <_>
          <internalNodes>
            0 -1 18 6.9870175793766975e-03</internalNodes>
          <leafValues>
            -6.8220365047454834e-01 5.3953534364700317e-01</leafValues></_></weakClassifiers></_>
    <!-- stage 10 -->
    <_>
      <maxWeakCount>2</maxWeakCount>
      <stageThreshold>-2.2578653693199158e-01</stageThreshold>
      <weakClassifiers>
        <_>
          <internalNodes>
            0 -1 19 6.0791242867708206e-03</internalNodes>
          <leafValues>
            -7.7777779102325439e-01 4.3750000000000000e-01</leafValues></_>
        <_>
          <internalNodes>
            0 -1 35 6.7390024196356535e-04</internalNodes>
          <leafValues>
            -5.9245705604553223e-01 5.5199122428894043e-01</leafValues></_></weakClassifiers></_>
    <!-- stage 11 -->
    <_>
      <maxWeakCount>4</maxWeakCount>
      <stageThreshold>-6.3188016414642334e-01</stageThreshold>
      <weakClassifiers>
        <_>
          <internalNodes>
            0 -1 8 -3.9332031155936420e-04</internalNodes>
          <leafValues>
            -7.6119405031204224e-01 2.0512820780277252e-01</leafValues></_>
        <_>
          <internalNodes>
            0 -1 3 -6.1931856907904148e-04</internalNodes>
          <leafValues>
            -6.8612372875213623e-01 3.4775412082672119e-01</leafValues></_>
        <_>
          <internalNodes>
            0 -1 15 -6.1654611490666866e-03</internalNodes>
          <leafValues>
            3.1239783763885498e-01 -8.0750501155853271e-01</leafValues></_>
        <_>
          <internalNodes>
            0 -1 16 -1.2031136080622673e-02</internalNodes>
          <leafValues>
            5.8906471729278564e-01 -5.0020790100097656e-01</leafValues></_></weakClassifiers></_></stages>
  <features>
    <_>
      <rects>
        <_>
          0 0 2 21 -1.</_>
        <_>
          1 0 1 21 2.</_></rects>
      <tilted>0</tilted></_>
    <_>
      <rects>
        <_>
          0 0 21 4 -1.</_>
        <_>
          0 2 21 2 2.</_></rects>
      <tilted>0</tilted></_>
    <_>
      <rects>
        <_>
          0 1 2 16 -1.</_>
        <_>
          1 1 1 16 2.</_></rects>
      <tilted>0</tilted></_>
    <_>
      <rects>
        <_>
          0 1 6 1 -1.</_>
        <_>
          2 1 2 1 3.</_></rects>
      <tilted>0</tilted></_>
    <_>
      <rects>
        <_>
          0 2 2 21 -1.</_>
        <_>
          1 2 1 21 2.</_></rects>
      <tilted>0</tilted></_>
    <_>
      <rects>
        <_>
          0 4 22 8 -1.</_>
        <_>
          0 4 11 4 2.</_>
        <_>
          11 8 11 4 2.</_></rects>
      <tilted>0</tilted></_>
    <_>
      <rects>
        <_>
          0 6 6 7 -1.</_>
        <_>
          3 6 3 7 2.</_></rects>
      <tilted>0</tilted></_>
    <_>
      <rects>
        <_>
          0 8 20 10 -1.</_>
        <_>
          0 8 10 5 2.</_>
        <_>
          10 13 10 5 2.</_></rects>
      <tilted>0</tilted></_>
    <_>
      <rects>
        <_>
          0 23 4 1 -1.</_>
        <_>
          2 23 2 1 2.</_></rects>
      <tilted>0</tilted></_>
    <_>
      <rects>
        <_>
          1 4 14 10 -1.</_>
        <_>
          1 4 7 5 2.</_>
        <_>
          8 9 7 5 2.</_></rects>
      <tilted>0</tilted></_>
    <_>
      <rects>
        <_>
          1 6 2 18 -1.</_>
        <_>
          2 6 1 18 2.</_></rects>
      <tilted>0</tilted></_>
    <_>
      <rects>
        <_>
          1 14 22 10 -1.</_>
        <_>
          1 19 22 5 2.</_></rects>
      <tilted>0</tilted></_>
    <_>
      <rects>
        <_>
          1 17 10 5 -1.</_>
        <_>
          6 17 5 5 2.</_></rects>
      <tilted>0</tilted></_>
    <_>
      <rects>
        <_>
          2 0 1 9 -1.</_>
        <_>
          2 3 1 3 3.</_></rects>
      <tilted>0</tilted></_>
    <_>
      <rects>
        <_>
          2 0 6 1 -1.</_>
        <_>
          4 0 2 1 3.</_></rects>
      <tilted>0</tilted></_>
    <_>
      <rects>
        <_>
          2 0 21 2 -1.</_>
        <_>
          2 1 21 1 2.</_></rects>
      <tilted>0</tilted></_>
    <_>
      <rects>
        <_>
          3 6 9 7 -1.</_>
        <_>
          6 6 3 7 3.</_></rects>
      <tilted>0</tilted></_>
    <_>
      <rects>
        <_>
          3 14 17 10 -1.</_>
        <_>
          3 19 17 5 2.</_></rects>
      <tilted>0</tilted></_>
    <_>
      <rects>
        <_>
          3 17 7 4 -1.</_>
        <_>
          3 19 7 2 2.</_></rects>
      <tilted>0</tilted></_>
    <_>
      <rects>
        <_>
          3 22 18 2 -1.</_>
        <_>
          3 23 18 1 2.</_></rects>
      <tilted>0</tilted></_>
    <_>
      <rects>
        <_>
          4 16 18 8 -1.</_>
        <_>
          4 20 18 4 2.</_></rects>
      <tilted>0</tilted></_>
    <_>
      <rects>
        <_>
          4 22 17 2 -1.</_>
        <_>
          4 23 17 1 2.</_></rects>
      <tilted>0</tilted></_>
    <_>
      <rects>
        <_>
          4 22 20 2 -1.</_>
        <_>
          4 23 20 1 2.</_></rects>
      <tilted>0</tilted></_>
    <_>
      <rects>
        <_>
          5 0 16 9 -1.</_>
        <_>
          13 0 8 9 2.</_></rects>
      <tilted>0</tilted></_>
    <_>
      <rects>
        <_>
          5 10 1 12 -1.</_>
        <_>
          5 16 1 6 2.</_></rects>
      <tilted>0</tilted></_>
    <_>
      <rects>
        <_>
          6 0 3 18 -1.</_>
        <_>
          6 6 3 6 3.</_></rects>
      <tilted>0</tilted></_>
    <_>
      <rects>
        <_>
          6 0 9 2 -1.</_>
        <_>
          6 1 9 1 2.</_></rects>
      <tilted>0</tilted></_>
    <_>
      <rects>
        <_>
          6 0 18 18 -1.</_>
        <_>
          6 6 18 6 3.</_></rects>
      <tilted>0</tilted></_>
    <_>
      <rects>
        <_>
          6 8 6 14 -1.</_>
        <_>
          6 8 3 7 2.</_>
        <_>
          9 15 3 7 2.</_></rects>
      <tilted>0</tilted></_>
    <_>
      <rects>
        <_>
          6 19 7 2 -1.</_>
        <_>
          6 20 7 1 2.</_></rects>
      <tilted>0</tilted></_>
    <_>
      <rects>
        <_>
          6 23 14 1 -1.</_>
        <_>
          13 23 7 1 2.</_></rects>
      <tilted>0</tilted></_>
    <_>
      <rects>
        <_>
          7 22 10 2 -1.</_>
        <_>
          7 23 10 1 2.</_></rects>
      <tilted>0</tilted></_>
    <_>
      <rects>
        <_>
          8 0 16 1 -1.</_>
        <_>
          16 0 8 1 2.</_></rects>
      <tilted>0</tilted></_>
    <_>
      <rects>
        <_>
          12 20 12 4 -1.</_>
        <_>
          18 20 6 4 2.</_></rects>
      <tilted>0</tilted></_>
    <_>
      <rects>
        <_>
          14 18 10 6 -1.</_>
        <_>
          14 18 5 3 2.</_>
        <_>
          19 21 5 3 2.</_></rects>
      <tilted>0</tilted></_>
    <_>
      <rects>
        <_>
          17 11 2 6 -1.</_>
        <_>
          17 13 2 2 3.</_></rects>
      <tilted>0</tilted></_>
    <_>
      <rects>
        <_>
          20 4 4 18 -1.</_>
        <_>
          22 4 2 18 2.</_></rects>
      <tilted>0</tilted></_>
    <_>
      <rects>
        <_>
          21 6 2 13 -1.</_>
        <_>
          22 6 1 13 2.</_></rects>
      <tilted>0</tilted></_>
    <_>
      <rects>
        <_>
          23 0 1 4 -1.</_>
        <_>
          23 2 1 2 2.</_></rects>
      <tilted>0</tilted></_></features></cascade>
</opencv_storage>
